{
  "SaveName": "singularity",
  "GenerationNumber": 727,
  "GenePool": [
      {
          "LayerGenes": [
              {
                  "NeuronGenes": [
                      {
                          "Weights": [
                              2.184774907714248,
                              -0.240458834036474,
                              0.38404332938562649,
                              1.254670218460698,
                              -1.1156562041121088,
                              0.6600689431128259,
                              -0.46415545690215589,
                              0.1307303627604881,
                              0.3157492082757956,
                              -0.5294241905212402,
                              -0.13424561738092706,
                              0.07821358637354734
                          ],
                          "Bias": -0.1419123411178589
                      },
                      {
                          "Weights": [
                              0.6113262020706174,
                              0.0,
                              -0.30144724415406756,
                              -0.823711234852202,
                              0.6752142906188965,
                              0.0,
                              -0.7016532777227649,
                              1.1585685919891745,
                              0.0,
                              0.0,
                              0.0,
                              0.0
                          ],
                          "Bias": -0.16060236275816437
                      },
                      {
                          "Weights": [
                              0.0,
                              0.0,
                              0.0,
                              0.6484815884310776,
                              0.0,
                              0.0,
                              0.08916431876551739,
                              0.3300421857715843,
                              0.0,
                              0.11564284455383874,
                              0.0,
                              0.0
                          ],
                          "Bias": 0.0
                      },
                      {
                          "Weights": [
                              0.0,
                              0.0,
                              0.0,
                              0.0,
                              0.4373591478314043,
                              0.0,
                              0.0,
                              0.0,
                              0.0,
                              0.0,
                              0.0,
                              0.0
                          ],
                          "Bias": 0.0
                      },
                      {
                          "Weights": [
                              0.0,
                              0.0,
                              0.0,
                              -0.44770073060851375,
                              0.0,
                              0.0,
                              0.0,
                              0.0,
                              0.0,
                              0.3579206801745997,
                              0.0,
                              0.18607798647789665
                          ],
                          "Bias": 0.0
                      },
                      {
                          "Weights": [
                              0.0,
                              0.0,
                              0.0,
                              0.0,
                              0.0,
                              0.0,
                              0.0,
                              0.0,
                              0.0,
                              0.0,
                              0.0,
                              0.0075003536049190549
                          ],
                          "Bias": 0.0
                      },
                      {
                          "Weights": [
                              0.1600731611251831,
                              -0.9221715927124023,
                              0.7229058742523193,
                              -0.7383184432983398,
                              -0.44534218311309817,
                              -0.5430741310119629,
                              -0.8955609798431397,
                              -0.17622554302215577,
                              0.23527777194976808,
                              0.9018640518188477,
                              -0.45061051845550539,
                              -0.4628955125808716
                          ],
                          "Bias": -0.841606855392456
                      },
                      {
                          "Weights": [
                              0.0,
                              0.0,
                              0.0,
                              0.0,
                              -0.7164473533630371,
                              0.0,
                              0.0,
                              0.0,
                              0.46458765864372256,
                              0.127893328666687,
                              0.0,
                              0.0
                          ],
                          "Bias": 0.0
                      }
                  ]
              },
              {
                  "NeuronGenes": [
                      {
                          "Weights": [
                              -0.4137920141220093,
                              -0.3560246229171753,
                              0.038872599601745608,
                              0.15608251094818116,
                              -0.46147119998931887,
                              0.8189151287078857,
                              0.742518424987793,
                              -0.7747609615325928
                          ],
                          "Bias": -0.36209261417388918
                      },
                      {
                          "Weights": [
                              0.9077446460723877,
                              -0.16442711988308646,
                              0.08846809948789769,
                              -0.35951536918713186,
                              0.39586303703575145,
                              -0.04810715883250083,
                              0.016738057136535646,
                              0.3095071017742157
                          ],
                          "Bias": -0.697866678237915
                      },
                      {
                          "Weights": [
                              0.5544741153717041,
                              -0.49403154850006106,
                              0.014098525047302246,
                              -0.18545520305633546,
                              0.9258995056152344,
                              -0.5703437328338623,
                              0.0,
                              -0.5087213516235352
                          ],
                          "Bias": 0.0
                      },
                      {
                          "Weights": [
                              0.0,
                              0.0,
                              0.0,
                              -0.01433098316192627,
                              -0.8915188312530518,
                              0.0,
                              0.0,
                              0.8818790912628174
                          ],
                          "Bias": 0.0
                      },
                      {
                          "Weights": [
                              -0.495186448097229,
                              -0.13734444623271334,
                              0.0,
                              0.0,
                              -0.7527524804728891,
                              0.45863408370759908,
                              0.25478078196272238,
                              0.0
                          ],
                          "Bias": 0.0
                      },
                      {
                          "Weights": [
                              0.0,
                              0.0,
                              0.15074443013790823,
                              -0.2618028816913575,
                              0.748842716217041,
                              0.9233958721160889,
                              0.3109248992401734,
                              0.0
                          ],
                          "Bias": 0.0567801645119722
                      },
                      {
                          "Weights": [
                              0.0,
                              0.0,
                              0.0,
                              -0.165063738822937,
                              0.6552536105871006,
                              -0.635129451751709,
                              0.0,
                              -0.04114171012703474
                          ],
                          "Bias": 0.0
                      },
                      {
                          "Weights": [
                              0.0,
                              0.0,
                              1.1057769186657718,
                              -1.6338553443280864,
                              -0.325665312045779,
                              0.492559302982291,
                              0.0,
                              1.2924223862017617
                          ],
                          "Bias": 0.0
                      }
                  ]
              },
              {
                  "NeuronGenes": [
                      {
                          "Weights": [
                              -0.06354714307299503,
                              -0.33648702453238957,
                              1.6929903264000806,
                              -0.11167172073037986,
                              -1.6345570798190746,
                              0.9428604282578025,
                              0.75184715819032,
                              -0.42388010752922869
                          ],
                          "Bias": 0.716036095235854
                      },
                      {
                          "Weights": [
                              0.12681614091239927,
                              -0.08246917153741293,
                              -0.42517824213099317,
                              0.5744251000072035,
                              -0.04084305766618703,
                              0.33724281191825869,
                              -1.365386630069074,
                              1.8862751924145167
                          ],
                          "Bias": -0.008362931892086825
                      },
                      {
                          "Weights": [
                              0.3527907215424749,
                              0.28302833437919619,
                              0.5896324454833022,
                              -0.21456637681868416,
                              0.058126008807519728,
                              -0.3211194230360422,
                              0.8839941024780273,
                              0.40464502843908647
                          ],
                          "Bias": -0.3308406698863706
                      }
                  ]
              }
          ],
          "Heritage": 1,
          "Fitness": 28843202.0
      },
      {
          "LayerGenes": [
              {
                  "NeuronGenes": [
                      {
                          "Weights": [
                              1.6136477253141813,
                              -0.240458834036474,
                              0.28364965319633486,
                              0.9266839054631588,
                              -0.824009873805096,
                              0.4875187575817108,
                              -0.46415545690215589,
                              0.09655582904815674,
                              0.23320846001341523,
                              -0.5294241905212402,
                              -0.09915215263377775,
                              0.07821358637354734
                          ],
                          "Bias": -0.1419123411178589
                      },
                      {
                          "Weights": [
                              0.6113262020706174,
                              0.0,
                              -0.30144724415406756,
                              -0.5681749803843232,
                              0.6195028059139816,
                              0.0,
                              -0.5749450902453361,
                              1.262757912483006,
                              0.0,
                              0.0,
                              0.0,
                              0.0
                          ],
                          "Bias": -0.16060236275816437
                      },
                      {
                          "Weights": [
                              0.0,
                              0.0,
                              0.0,
                              0.6484815884310776,
                              0.0,
                              0.0,
                              0.08916431876551739,
                              0.3300421857715843,
                              0.0,
                              0.11564284455383874,
                              0.0,
                              0.0
                          ],
                          "Bias": 0.0
                      },
                      {
                          "Weights": [
                              0.0,
                              0.0,
                              0.0,
                              0.0,
                              0.4373591478314043,
                              0.0,
                              0.0,
                              0.0,
                              0.0,
                              0.0,
                              0.0,
                              0.0
                          ],
                          "Bias": 0.0
                      },
                      {
                          "Weights": [
                              0.0,
                              0.0,
                              0.0,
                              -0.44770073060851375,
                              0.0,
                              0.0,
                              0.0,
                              0.0,
                              0.0,
                              0.3579206801745997,
                              0.0,
                              0.18607798647789665
                          ],
                          "Bias": 0.0
                      },
                      {
                          "Weights": [
                              0.0,
                              0.0,
                              0.0,
                              0.0,
                              0.0,
                              0.0,
                              0.0,
                              0.0,
                              0.0,
                              0.0,
                              0.0,
                              0.005289749719343264
                          ],
                          "Bias": 0.0
                      },
                      {
                          "Weights": [
                              0.1600731611251831,
                              -0.9221715927124023,
                              0.7229058742523193,
                              -0.7383184432983398,
                              -0.44534218311309817,
                              -0.5430741310119629,
                              -0.8955609798431397,
                              -0.17622554302215577,
                              0.23527777194976808,
                              0.9018640518188477,
                              -0.45061051845550539,
                              -0.4628955125808716
                          ],
                          "Bias": -0.841606855392456
                      },
                      {
                          "Weights": [
                              0.0,
                              0.0,
                              0.0,
                              0.0,
                              -0.7164473533630371,
                              0.0,
                              0.0,
                              0.0,
                              0.46458765864372256,
                              0.127893328666687,
                              0.0,
                              0.0
                          ],
                          "Bias": 0.0
                      }
                  ]
              },
              {
                  "NeuronGenes": [
                      {
                          "Weights": [
                              0.2300640344619751,
                              -0.3560246229171753,
                              0.038872599601745608,
                              0.15608251094818116,
                              -0.46147119998931887,
                              0.8189151287078857,
                              0.742518424987793,
                              -0.7747609615325928
                          ],
                          "Bias": -0.36209261417388918
                      },
                      {
                          "Weights": [
                              1.242049541833893,
                              -0.16442711988308646,
                              0.08218324184417725,
                              -0.26274970568283609,
                              0.28931418622528329,
                              -0.04810715883250083,
                              0.016738057136535646,
                              0.3095071017742157
                          ],
                          "Bias": -0.9548775547362709
                      },
                      {
                          "Weights": [
                              0.5544741153717041,
                              -0.49403154850006106,
                              0.014098525047302246,
                              -0.18545520305633546,
                              0.9258995056152344,
                              -0.5703437328338623,
                              0.0,
                              -0.40409910678863528
                          ],
                          "Bias": 0.0
                      },
                      {
                          "Weights": [
                              0.0,
                              0.0,
                              0.0,
                              -0.01433098316192627,
                              -0.8915188312530518,
                              0.0,
                              0.0,
                              0.8818790912628174
                          ],
                          "Bias": 0.0
                      },
                      {
                          "Weights": [
                              -0.495186448097229,
                              -0.13734444623271334,
                              0.0,
                              0.0,
                              -0.7527524804728891,
                              0.45863408370759908,
                              0.25478078196272238,
                              0.0
                          ],
                          "Bias": 0.0
                      },
                      {
                          "Weights": [
                              0.0,
                              0.0,
                              0.15074443013790823,
                              -0.2618028816913575,
                              0.748842716217041,
                              0.9233958721160889,
                              0.3109248992401734,
                              0.0
                          ],
                          "Bias": 0.0567801645119722
                      },
                      {
                          "Weights": [
                              0.0,
                              0.0,
                              0.0,
                              -0.165063738822937,
                              0.6552536105871006,
                              -0.635129451751709,
                              0.0,
                              -0.04114171012703474
                          ],
                          "Bias": 0.0
                      },
                      {
                          "Weights": [
                              0.0,
                              0.0,
                              1.1057769186657718,
                              -1.6338553443280864,
                              -0.325665312045779,
                              0.492559302982291,
                              0.0,
                              1.2924223862017617
                          ],
                          "Bias": 0.0
                      }
                  ]
              },
              {
                  "NeuronGenes": [
                      {
                          "Weights": [
                              -0.0430220365524292,
                              -0.2278050022205085,
                              1.1461709871304289,
                              -0.0756028456797253,
                              -1.2168668606718159,
                              0.46027131932033918,
                              0.5090078697062577,
                              0.6109006433993
                          ],
                          "Bias": 0.6722925203592922
                      },
                      {
                          "Weights": [
                              0.12681614091239927,
                              -0.08246917153741293,
                              -0.4649019536714885,
                              0.5744251000072035,
                              -0.044658958106039679,
                              0.33724281191825869,
                              -1.5829709204139942,
                              2.062506815307349
                          ],
                          "Bias": -0.009144267015090878
                      },
                      {
                          "Weights": [
                              0.3527907215424749,
                              0.28302833437919619,
                              0.5896324454833022,
                              -0.21456637681868416,
                              0.04139717465580617,
                              -0.3211194230360422,
                              1.0413956353799848,
                              0.40464502843908647
                          ],
                          "Bias": -0.3308406698863706
                      }
                  ]
              }
          ],
          "Heritage": 1,
          "Fitness": 28352964.0
      },
      {
          "LayerGenes": [
              {
                  "NeuronGenes": [
                      {
                          "Weights": [
                              0.0,
                              0.0,
                              0.0,
                              0.0,
                              0.0,
                              0.0,
                              0.0,
                              0.0,
                              0.0,
                              0.0,
                              0.0,
                              0.0
                          ],
                          "Bias": 0.0
                      },
                      {
                          "Weights": [
                              0.0,
                              0.0,
                              0.0,
                              0.0,
                              0.0,
                              0.0,
                              0.0,
                              0.0,
                              0.0,
                              0.0,
                              0.0,
                              0.0
                          ],
                          "Bias": 0.0
                      },
                      {
                          "Weights": [
                              0.0,
                              0.0,
                              0.0,
                              0.0,
                              0.0,
                              0.0,
                              0.0,
                              0.0,
                              0.0,
                              0.0,
                              0.0,
                              0.0
                          ],
                          "Bias": 0.0
                      },
                      {
                          "Weights": [
                              0.0,
                              0.0,
                              0.0,
                              0.0,
                              0.0,
                              0.0,
                              0.0,
                              0.0,
                              0.0,
                              0.0,
                              0.0,
                              0.0
                          ],
                          "Bias": 0.0
                      },
                      {
                          "Weights": [
                              0.0,
                              0.0,
                              0.0,
                              0.0,
                              0.0,
                              0.0,
                              0.0,
                              0.0,
                              0.0,
                              0.0,
                              0.0,
                              0.0
                          ],
                          "Bias": 0.0
                      },
                      {
                          "Weights": [
                              0.12701523303985597,
                              0.5879242420196533,
                              0.6946263313293457,
                              -0.030988335609436036,
                              0.8955872058868408,
                              0.4124090373516083,
                              -0.23737108707427979,
                              -0.053322434425354007,
                              0.5360414981842041,
                              0.6499195098876953,
                              -0.2846139669418335,
                              0.2837800681591034
                          ],
                          "Bias": -0.0843878984451294
                      },
                      {
                          "Weights": [
                              0.0,
                              0.0,
                              0.0,
                              0.0,
                              0.0,
                              0.0,
                              0.0,
                              0.0,
                              0.0,
                              0.0,
                              0.0,
                              0.0
                          ],
                          "Bias": 0.0
                      },
                      {
                          "Weights": [
                              0.0,
                              0.0,
                              0.0,
                              0.0,
                              0.0,
                              0.0,
                              0.0,
                              0.0,
                              0.0,
                              0.0,
                              0.0,
                              0.0
                          ],
                          "Bias": 0.0
                      }
                  ]
              },
              {
                  "NeuronGenes": [
                      {
                          "Weights": [
                              0.0,
                              0.0,
                              0.0,
                              0.0,
                              0.0,
                              0.0,
                              0.0,
                              0.0
                          ],
                          "Bias": 0.0
                      },
                      {
                          "Weights": [
                              0.0,
                              0.0,
                              0.0,
                              0.0,
                              0.0,
                              0.0,
                              0.0,
                              0.0
                          ],
                          "Bias": 0.0
                      },
                      {
                          "Weights": [
                              0.0,
                              0.0,
                              0.0,
                              0.0,
                              0.0,
                              0.0,
                              0.0,
                              0.0
                          ],
                          "Bias": 0.0
                      },
                      {
                          "Weights": [
                              0.0,
                              0.0,
                              0.0,
                              0.0,
                              0.0,
                              0.0,
                              0.0,
                              0.0
                          ],
                          "Bias": 0.0
                      },
                      {
                          "Weights": [
                              0.0,
                              0.0,
                              0.0,
                              0.0,
                              0.0,
                              0.0,
                              0.0,
                              0.0
                          ],
                          "Bias": 0.0
                      },
                      {
                          "Weights": [
                              0.0,
                              0.0,
                              0.0,
                              0.0,
                              0.0,
                              0.0,
                              0.0,
                              0.0
                          ],
                          "Bias": 0.0
                      },
                      {
                          "Weights": [
                              0.0,
                              0.0,
                              0.0,
                              0.0,
                              0.0,
                              0.0,
                              0.0,
                              0.0
                          ],
                          "Bias": 0.0
                      },
                      {
                          "Weights": [
                              -0.7768764495849609,
                              -0.08681952953338623,
                              0.008515000343322754,
                              0.2522220313549042,
                              -0.4060770273208618,
                              0.3945302665233612,
                              -0.019810080528259279,
                              -0.5570704936981201
                          ],
                          "Bias": 0.11615312099456787
                      }
                  ]
              },
              {
                  "NeuronGenes": [
                      {
                          "Weights": [
                              -0.7933804988861084,
                              0.03178846836090088,
                              0.7509555816650391,
                              0.580115795135498,
                              0.4891984164714813,
                              0.17608654499053956,
                              0.49974796175956728,
                              -0.6197531223297119
                          ],
                          "Bias": -0.09331405162811279
                      },
                      {
                          "Weights": [
                              0.6910932064056397,
                              0.6439023017883301,
                              0.029941916465759279,
                              0.6633708477020264,
                              0.44725534319877627,
                              -0.11839950084686279,
                              0.3206309974193573,
                              0.3036777675151825
                          ],
                          "Bias": -0.13975656032562257
                      },
                      {
                          "Weights": [
                              -0.2591787576675415,
                              -0.12196600437164307,
                              -0.7927594184875488,
                              -0.07131564617156983,
                              -0.46047675609588625,
                              -0.036200642585754397,
                              -0.13893163204193116,
                              -0.06834018230438233
                          ],
                          "Bias": -0.9612879753112793
                      }
                  ]
              }
          ],
          "Heritage": 0,
          "Fitness": 0.0
      },
      {
          "LayerGenes": [
              {
                  "NeuronGenes": [
                      {
                          "Weights": [
                              0.0,
                              0.0,
                              0.0,
                              0.0,
                              0.0,
                              0.0,
                              0.0,
                              0.0,
                              0.0,
                              0.0,
                              0.0,
                              0.0
                          ],
                          "Bias": 0.0
                      },
                      {
                          "Weights": [
                              0.0,
                              0.0,
                              0.0,
                              0.0,
                              0.0,
                              0.0,
                              0.0,
                              0.0,
                              0.0,
                              0.0,
                              0.0,
                              0.0
                          ],
                          "Bias": 0.0
                      },
                      {
                          "Weights": [
                              0.0,
                              0.0,
                              0.0,
                              0.0,
                              0.0,
                              0.0,
                              0.0,
                              0.0,
                              0.0,
                              0.0,
                              0.0,
                              0.0
                          ],
                          "Bias": 0.0
                      },
                      {
                          "Weights": [
                              0.0,
                              0.0,
                              0.0,
                              0.0,
                              0.0,
                              0.0,
                              0.0,
                              0.0,
                              0.0,
                              0.0,
                              0.0,
                              0.0
                          ],
                          "Bias": 0.0
                      },
                      {
                          "Weights": [
                              -0.21609699726104737,
                              0.02722322940826416,
                              -0.1256347894668579,
                              0.9944536685943604,
                              -0.3852013349533081,
                              0.7718753814697266,
                              -0.799985408782959,
                              0.49508902430534365,
                              0.20943105220794679,
                              -0.3366302251815796,
                              0.5081987380981445,
                              0.8093621730804443
                          ],
                          "Bias": -0.05110490322113037
                      },
                      {
                          "Weights": [
                              0.0,
                              0.0,
                              0.0,
                              0.0,
                              0.0,
                              0.0,
                              0.0,
                              0.0,
                              0.0,
                              0.0,
                              0.0,
                              0.0
                          ],
                          "Bias": 0.0
                      },
                      {
                          "Weights": [
                              0.0,
                              0.0,
                              0.0,
                              0.0,
                              0.0,
                              0.0,
                              0.0,
                              0.0,
                              0.0,
                              0.0,
                              0.0,
                              0.0
                          ],
                          "Bias": 0.0
                      },
                      {
                          "Weights": [
                              0.0,
                              0.0,
                              0.0,
                              0.0,
                              0.0,
                              0.0,
                              0.0,
                              0.0,
                              0.0,
                              0.0,
                              0.0,
                              0.0
                          ],
                          "Bias": 0.0
                      }
                  ]
              },
              {
                  "NeuronGenes": [
                      {
                          "Weights": [
                              0.0,
                              0.0,
                              0.0,
                              0.0,
                              0.0,
                              0.0,
                              0.0,
                              0.0
                          ],
                          "Bias": 0.0
                      },
                      {
                          "Weights": [
                              0.0,
                              0.0,
                              0.0,
                              0.0,
                              0.0,
                              0.0,
                              0.0,
                              0.0
                          ],
                          "Bias": 0.0
                      },
                      {
                          "Weights": [
                              0.0,
                              0.0,
                              0.0,
                              0.0,
                              0.0,
                              0.0,
                              0.0,
                              0.0
                          ],
                          "Bias": 0.0
                      },
                      {
                          "Weights": [
                              0.0,
                              0.0,
                              0.0,
                              0.0,
                              0.0,
                              0.0,
                              0.0,
                              0.0
                          ],
                          "Bias": 0.0
                      },
                      {
                          "Weights": [
                              0.0,
                              0.0,
                              0.0,
                              0.0,
                              0.0,
                              0.0,
                              0.0,
                              0.0
                          ],
                          "Bias": 0.0
                      },
                      {
                          "Weights": [
                              0.0,
                              0.0,
                              0.0,
                              0.0,
                              0.0,
                              0.0,
                              0.0,
                              0.0
                          ],
                          "Bias": 0.0
                      },
                      {
                          "Weights": [
                              0.840951681137085,
                              0.9016661643981934,
                              -0.6506671905517578,
                              -0.882418155670166,
                              0.5703253746032715,
                              0.08216655254364014,
                              0.28194329142570498,
                              -0.5304055213928223
                          ],
                          "Bias": -0.6481022834777832
                      },
                      {
                          "Weights": [
                              0.0,
                              0.0,
                              0.0,
                              0.0,
                              0.0,
                              0.0,
                              0.0,
                              0.0
                          ],
                          "Bias": 0.0
                      }
                  ]
              },
              {
                  "NeuronGenes": [
                      {
                          "Weights": [
                              -0.4894670248031616,
                              -0.016919493675231935,
                              0.5875871181488037,
                              -0.24183809757232667,
                              0.6315629482269287,
                              -0.996281623840332,
                              0.9023034572601318,
                              -0.6805281639099121
                          ],
                          "Bias": 0.4757630527019501
                      },
                      {
                          "Weights": [
                              -0.9109373092651367,
                              0.619429349899292,
                              -0.5465829372406006,
                              0.22623860836029054,
                              0.5230085849761963,
                              0.5198512077331543,
                              -0.2166815996170044,
                              0.7709317207336426
                          ],
                          "Bias": -0.8184542655944824
                      },
                      {
                          "Weights": [
                              0.4413623511791229,
                              0.04142415523529053,
                              0.5659070014953613,
                              -0.6784365177154541,
                              0.9098536968231201,
                              -0.7115676403045654,
                              -0.9519028663635254,
                              -0.47932755947113039
                          ],
                          "Bias": 0.06725513935089112
                      }
                  ]
              }
          ],
          "Heritage": 0,
          "Fitness": 0.0
      },
      {
          "LayerGenes": [
              {
                  "NeuronGenes": [
                      {
                          "Weights": [
                              1.6136477253141813,
                              -0.240458834036474,
                              0.38404332938562649,
                              0.9266839054631588,
                              -0.824009873805096,
                              0.4875187575817108,
                              -0.46415545690215589,
                              0.1307303627604881,
                              0.3157492082757956,
                              -0.5294241905212402,
                              -0.09915215263377775,
                              0.07821358637354734
                          ],
                          "Bias": -0.1419123411178589
                      },
                      {
                          "Weights": [
                              0.8131441591055032,
                              0.0,
                              -0.30144724415406756,
                              -0.6192705870986401,
                              0.6752142906188965,
                              0.0,
                              -0.5275067509708378,
                              1.262757912483006,
                              0.0,
                              0.0,
                              0.0,
                              0.0
                          ],
                          "Bias": -0.16060236275816437
                      },
                      {
                          "Weights": [
                              0.0,
                              0.0,
                              0.0,
                              0.6484815884310776,
                              0.0,
                              0.0,
                              0.08916431876551739,
                              0.3300421857715843,
                              0.0,
                              0.11564284455383874,
                              0.0,
                              0.0
                          ],
                          "Bias": 0.0
                      },
                      {
                          "Weights": [
                              0.0,
                              0.0,
                              0.0,
                              0.0,
                              0.4373591478314043,
                              0.0,
                              0.0,
                              0.0,
                              0.0,
                              0.0,
                              0.0,
                              0.0
                          ],
                          "Bias": 0.0
                      },
                      {
                          "Weights": [
                              0.0,
                              0.0,
                              0.0,
                              -0.44770073060851375,
                              0.0,
                              0.0,
                              0.0,
                              0.0,
                              0.0,
                              0.3579206801745997,
                              0.0,
                              0.18607798647789665
                          ],
                          "Bias": 0.0
                      },
                      {
                          "Weights": [
                              0.0,
                              0.0,
                              0.0,
                              0.0,
                              0.0,
                              0.0,
                              0.0,
                              0.0,
                              0.0,
                              0.0,
                              0.0,
                              0.005289749719343264
                          ],
                          "Bias": 0.0
                      },
                      {
                          "Weights": [
                              0.1600731611251831,
                              -0.9221715927124023,
                              0.7229058742523193,
                              -0.7383184432983398,
                              -0.44534218311309817,
                              -0.5430741310119629,
                              -0.8955609798431397,
                              -0.17622554302215577,
                              0.23527777194976808,
                              0.9018640518188477,
                              -0.45061051845550539,
                              -0.4628955125808716
                          ],
                          "Bias": -0.841606855392456
                      },
                      {
                          "Weights": [
                              0.0,
                              0.0,
                              0.0,
                              0.0,
                              -0.7164473533630371,
                              0.0,
                              0.0,
                              0.0,
                              0.46458765864372256,
                              0.127893328666687,
                              0.0,
                              0.0
                          ],
                          "Bias": 0.0
                      }
                  ]
              },
              {
                  "NeuronGenes": [
                      {
                          "Weights": [
                              0.2300640344619751,
                              -0.3560246229171753,
                              0.038872599601745608,
                              0.15608251094818116,
                              -0.46147119998931887,
                              0.8189151287078857,
                              0.742518424987793,
                              -0.7747609615325928
                          ],
                          "Bias": -0.36209261417388918
                      },
                      {
                          "Weights": [
                              0.9257231334339268,
                              -0.12255065801557474,
                              0.06125273235350903,
                              -0.2679536386207014,
                              0.21563136251707883,
                              -0.035855179938532658,
                              0.012475192154695947,
                              0.2306815263193407
                          ],
                          "Bias": -0.7116883926473869
                      },
                      {
                          "Weights": [
                              0.5544741153717041,
                              -0.49403154850006106,
                              0.014098525047302246,
                              -0.18545520305633546,
                              0.9258995056152344,
                              -0.5703437328338623,
                              0.0,
                              -0.5087213516235352
                          ],
                          "Bias": 0.0
                      },
                      {
                          "Weights": [
                              0.0,
                              0.0,
                              0.0,
                              -0.01433098316192627,
                              -0.8915188312530518,
                              0.0,
                              0.0,
                              0.8818790912628174
                          ],
                          "Bias": 0.0
                      },
                      {
                          "Weights": [
                              -0.495186448097229,
                              -0.13734444623271334,
                              0.0,
                              0.0,
                              -0.7527524804728891,
                              0.45863408370759908,
                              0.25478078196272238,
                              0.0
                          ],
                          "Bias": 0.34166809916496279
                      },
                      {
                          "Weights": [
                              0.0,
                              0.0,
                              0.15074443013790823,
                              -0.2618028816913575,
                              0.748842716217041,
                              0.9233958721160889,
                              0.3109248992401734,
                              0.0
                          ],
                          "Bias": 0.0567801645119722
                      },
                      {
                          "Weights": [
                              0.0,
                              0.0,
                              0.0,
                              -0.165063738822937,
                              0.6552536105871006,
                              -0.635129451751709,
                              0.0,
                              -0.04114171012703474
                          ],
                          "Bias": 0.0
                      },
                      {
                          "Weights": [
                              0.0,
                              0.0,
                              1.1057769186657718,
                              -1.6338553443280864,
                              -0.325665312045779,
                              0.492559302982291,
                              0.0,
                              1.2924223862017617
                          ],
                          "Bias": 0.0
                      }
                  ]
              },
              {
                  "NeuronGenes": [
                      {
                          "Weights": [
                              -0.0430220365524292,
                              -0.2278050022205085,
                              1.1461709871304289,
                              -0.0756028456797253,
                              -0.7979333113204081,
                              0.6383257192499059,
                              0.5090078697062577,
                              0.8472254868365781
                          ],
                          "Bias": 0.6722925203592922
                      },
                      {
                          "Weights": [
                              0.12681614091239927,
                              -0.08246917153741293,
                              -0.42517824213099317,
                              0.5744251000072035,
                              -0.044658958106039679,
                              0.33724281191825869,
                              -1.5829709204139942,
                              1.8862751924145167
                          ],
                          "Bias": -0.008362931892086825
                      },
                      {
                          "Weights": [
                              0.3527907215424749,
                              0.28302833437919619,
                              0.5896324454833022,
                              -0.21456637681868416,
                              0.058126008807519728,
                              -0.3211194230360422,
                              1.0413956353799848,
                              0.40464502843908647
                          ],
                          "Bias": -0.3308406698863706
                      }
                  ]
              }
          ],
          "Heritage": 3,
          "Fitness": 35170.74609375
      },
      {
          "LayerGenes": [
              {
                  "NeuronGenes": [
                      {
                          "Weights": [
                              1.6136477253141813,
                              -0.3255657469097393,
                              0.28364965319633486,
                              0.9266839054631588,
                              -0.824009873805096,
                              0.4875187575817108,
                              -0.46415545690215589,
                              0.09655582904815674,
                              0.23320846001341523,
                              -0.7168061955793519,
                              -0.09915215263377775,
                              0.07821358637354734
                          ],
                          "Bias": -0.1419123411178589
                      },
                      {
                          "Weights": [
                              0.6113262020706174,
                              0.0,
                              -0.30144724415406756,
                              -0.5681749803843232,
                              0.6195028059139816,
                              0.0,
                              -0.5749450902453361,
                              1.262757912483006,
                              0.0,
                              0.0,
                              0.0,
                              0.0
                          ],
                          "Bias": -0.16060236275816437
                      },
                      {
                          "Weights": [
                              0.0,
                              0.0,
                              0.0,
                              0.6484815884310776,
                              0.0,
                              0.0,
                              0.08916431876551739,
                              0.3300421857715843,
                              0.0,
                              0.11564284455383874,
                              0.0,
                              0.0
                          ],
                          "Bias": 0.0
                      },
                      {
                          "Weights": [
                              0.0,
                              0.0,
                              0.0,
                              0.0,
                              0.4373591478314043,
                              0.0,
                              0.0,
                              0.0,
                              0.0,
                              0.0,
                              0.0,
                              0.0
                          ],
                          "Bias": 0.0
                      },
                      {
                          "Weights": [
                              0.0,
                              0.0,
                              0.0,
                              -0.44770073060851375,
                              0.0,
                              0.0,
                              0.0,
                              0.0,
                              0.0,
                              0.3579206801745997,
                              0.0,
                              0.18607798647789665
                          ],
                          "Bias": 0.0
                      },
                      {
                          "Weights": [
                              0.0,
                              0.0,
                              0.0,
                              0.0,
                              0.0,
                              0.0,
                              0.0,
                              0.0,
                              0.0,
                              0.0,
                              0.0,
                              0.005289749719343264
                          ],
                          "Bias": 0.0
                      },
                      {
                          "Weights": [
                              0.1600731611251831,
                              -0.9221715927124023,
                              0.7229058742523193,
                              -0.7383184432983398,
                              -0.44534218311309817,
                              -0.5430741310119629,
                              -0.8955609798431397,
                              -0.17622554302215577,
                              0.23527777194976808,
                              0.9018640518188477,
                              -0.45061051845550539,
                              -0.4628955125808716
                          ],
                          "Bias": -0.841606855392456
                      },
                      {
                          "Weights": [
                              0.0,
                              0.0,
                              0.0,
                              0.0,
                              -0.7164473533630371,
                              0.0,
                              0.0,
                              0.0,
                              0.46458765864372256,
                              0.127893328666687,
                              0.0,
                              0.0
                          ],
                          "Bias": 0.0
                      }
                  ]
              },
              {
                  "NeuronGenes": [
                      {
                          "Weights": [
                              -0.4137920141220093,
                              -0.3560246229171753,
                              0.038872599601745608,
                              0.15608251094818116,
                              -0.46147119998931887,
                              0.8189151287078857,
                              0.742518424987793,
                              -0.7747609615325928
                          ],
                          "Bias": -0.36209261417388918
                      },
                      {
                          "Weights": [
                              0.9077446460723877,
                              -0.16442711988308646,
                              0.08218324184417725,
                              -0.26274970568283609,
                              0.28931418622528329,
                              -0.04810715883250083,
                              0.022902361680209539,
                              0.3095071017742157
                          ],
                          "Bias": -0.9548775547362709
                      },
                      {
                          "Weights": [
                              0.5544741153717041,
                              -0.49403154850006106,
                              0.014098525047302246,
                              -0.18545520305633546,
                              0.9258995056152344,
                              -0.5703437328338623,
                              0.0,
                              -0.40409910678863528
                          ],
                          "Bias": 0.0
                      },
                      {
                          "Weights": [
                              0.0,
                              0.0,
                              0.0,
                              -0.01433098316192627,
                              -0.8915188312530518,
                              0.0,
                              0.0,
                              0.8818790912628174
                          ],
                          "Bias": 0.0
                      },
                      {
                          "Weights": [
                              -0.495186448097229,
                              -0.13734444623271334,
                              0.0,
                              0.0,
                              -0.7527524804728891,
                              0.45863408370759908,
                              0.25478078196272238,
                              0.0
                          ],
                          "Bias": 0.0
                      },
                      {
                          "Weights": [
                              0.0,
                              0.0,
                              0.15074443013790823,
                              -0.2618028816913575,
                              0.748842716217041,
                              0.9233958721160889,
                              0.3109248992401734,
                              0.0
                          ],
                          "Bias": 0.0567801645119722
                      },
                      {
                          "Weights": [
                              0.0,
                              0.0,
                              0.0,
                              -0.165063738822937,
                              0.6552536105871006,
                              -0.635129451751709,
                              0.0,
                              -0.04114171012703474
                          ],
                          "Bias": 0.0
                      },
                      {
                          "Weights": [
                              0.0,
                              0.0,
                              1.1057769186657718,
                              -1.6338553443280864,
                              -0.325665312045779,
                              0.492559302982291,
                              0.0,
                              1.2924223862017617
                          ],
                          "Bias": 0.0
                      }
                  ]
              },
              {
                  "NeuronGenes": [
                      {
                          "Weights": [
                              -0.0430220365524292,
                              -0.2278050022205085,
                              1.1461709871304289,
                              -0.0756028456797253,
                              -1.2168668606718159,
                              0.46027131932033918,
                              0.5090078697062577,
                              0.6109006433993
                          ],
                          "Bias": 0.6722925203592922
                      },
                      {
                          "Weights": [
                              0.23775064876588296,
                              -0.08246917153741293,
                              -0.4649019536714885,
                              0.5744251000072035,
                              -0.04084305766618703,
                              0.33724281191825869,
                              -1.365386630069074,
                              2.062506815307349
                          ],
                          "Bias": -0.009144267015090878
                      },
                      {
                          "Weights": [
                              0.3527907215424749,
                              0.3211663373868312,
                              0.5196145097238759,
                              -0.21456637681868416,
                              0.04139717465580617,
                              -0.3211194230360422,
                              1.0413956353799848,
                              0.40464502843908647
                          ],
                          "Bias": -0.3308406698863706
                      }
                  ]
              }
          ],
          "Heritage": 2,
          "Fitness": 0.0
      },
      {
          "LayerGenes": [
              {
                  "NeuronGenes": [
                      {
                          "Weights": [
                              2.184774907714248,
                              -0.240458834036474,
                              0.28364965319633486,
                              0.9266839054631588,
                              -1.1156562041121088,
                              0.6600689431128259,
                              -0.46415545690215589,
                              0.1307303627604881,
                              0.3157492082757956,
                              -0.5294241905212402,
                              -0.13424561738092706,
                              0.07821358637354734
                          ],
                          "Bias": -0.1419123411178589
                      },
                      {
                          "Weights": [
                              0.6113262020706174,
                              0.0,
                              -0.30144724415406756,
                              -0.823711234852202,
                              0.6195028059139816,
                              0.0,
                              -0.7016532777227649,
                              1.262757912483006,
                              0.0,
                              0.0,
                              0.0,
                              0.0
                          ],
                          "Bias": -0.16060236275816437
                      },
                      {
                          "Weights": [
                              0.0,
                              0.0,
                              0.0,
                              0.6484815884310776,
                              0.0,
                              0.0,
                              0.08916431876551739,
                              0.3300421857715843,
                              0.0,
                              0.11564284455383874,
                              0.0,
                              0.0
                          ],
                          "Bias": 0.0
                      },
                      {
                          "Weights": [
                              0.0,
                              0.0,
                              0.0,
                              0.0,
                              0.4373591478314043,
                              0.0,
                              0.0,
                              0.0,
                              0.0,
                              0.0,
                              0.0,
                              0.0
                          ],
                          "Bias": 0.0
                      },
                      {
                          "Weights": [
                              0.0,
                              0.0,
                              0.0,
                              -0.44770073060851375,
                              0.0,
                              0.0,
                              0.0,
                              0.0,
                              0.0,
                              0.3579206801745997,
                              0.0,
                              0.18607798647789665
                          ],
                          "Bias": 0.0
                      },
                      {
                          "Weights": [
                              0.0,
                              0.0,
                              0.0,
                              0.0,
                              0.0,
                              0.0,
                              0.0,
                              0.0,
                              0.0,
                              0.0,
                              0.0,
                              0.0075003536049190549
                          ],
                          "Bias": 0.0
                      },
                      {
                          "Weights": [
                              0.1600731611251831,
                              -0.9221715927124023,
                              0.7229058742523193,
                              -0.7383184432983398,
                              -0.44534218311309817,
                              -0.5430741310119629,
                              -0.8955609798431397,
                              -0.17622554302215577,
                              0.23527777194976808,
                              0.9018640518188477,
                              -0.45061051845550539,
                              -0.4628955125808716
                          ],
                          "Bias": -0.841606855392456
                      },
                      {
                          "Weights": [
                              0.0,
                              0.0,
                              0.0,
                              0.0,
                              -0.7164473533630371,
                              0.0,
                              0.0,
                              0.0,
                              0.46458765864372256,
                              0.127893328666687,
                              0.0,
                              0.0
                          ],
                          "Bias": 0.0
                      }
                  ]
              },
              {
                  "NeuronGenes": [
                      {
                          "Weights": [
                              -0.4137920141220093,
                              -0.3560246229171753,
                              0.038872599601745608,
                              0.15608251094818116,
                              -0.46147119998931887,
                              0.8189151287078857,
                              0.742518424987793,
                              -0.7747609615325928
                          ],
                          "Bias": -0.36209261417388918
                      },
                      {
                          "Weights": [
                              1.242049541833893,
                              -0.16442711988308646,
                              0.08218324184417725,
                              -0.35951536918713186,
                              0.39586303703575145,
                              -0.04810715883250083,
                              0.016738057136535646,
                              0.3095071017742157
                          ],
                          "Bias": -0.697866678237915
                      },
                      {
                          "Weights": [
                              0.5544741153717041,
                              -0.49403154850006106,
                              0.014098525047302246,
                              -0.18545520305633546,
                              0.9258995056152344,
                              -0.5703437328338623,
                              0.0,
                              -0.40409910678863528
                          ],
                          "Bias": 0.0
                      },
                      {
                          "Weights": [
                              0.0,
                              0.0,
                              0.0,
                              -0.01433098316192627,
                              -0.8915188312530518,
                              0.0,
                              0.0,
                              0.8818790912628174
                          ],
                          "Bias": 0.0
                      },
                      {
                          "Weights": [
                              -0.495186448097229,
                              -0.13734444623271334,
                              0.0,
                              0.0,
                              -0.7527524804728891,
                              0.45863408370759908,
                              0.25478078196272238,
                              0.0
                          ],
                          "Bias": 0.0
                      },
                      {
                          "Weights": [
                              0.0,
                              0.0,
                              0.15074443013790823,
                              -0.2618028816913575,
                              0.748842716217041,
                              0.9233958721160889,
                              0.3109248992401734,
                              0.0
                          ],
                          "Bias": 0.0567801645119722
                      },
                      {
                          "Weights": [
                              0.0,
                              0.0,
                              0.0,
                              -0.165063738822937,
                              0.6552536105871006,
                              -0.635129451751709,
                              0.0,
                              -0.04114171012703474
                          ],
                          "Bias": 0.0
                      },
                      {
                          "Weights": [
                              0.0,
                              0.0,
                              1.1057769186657718,
                              -1.6338553443280864,
                              -0.325665312045779,
                              0.492559302982291,
                              0.0,
                              1.2924223862017617
                          ],
                          "Bias": 0.0
                      }
                  ]
              },
              {
                  "NeuronGenes": [
                      {
                          "Weights": [
                              -0.06354714307299503,
                              -0.33648702453238957,
                              1.6929903264000806,
                              -0.11167172073037986,
                              -1.2168668606718159,
                              0.46027131932033918,
                              0.75184715819032,
                              0.6109006433993
                          ],
                          "Bias": 0.716036095235854
                      },
                      {
                          "Weights": [
                              0.12681614091239927,
                              -0.08246917153741293,
                              -0.42517824213099317,
                              0.5744251000072035,
                              -0.04084305766618703,
                              0.33724281191825869,
                              -1.5829709204139942,
                              2.062506815307349
                          ],
                          "Bias": -0.008362931892086825
                      },
                      {
                          "Weights": [
                              0.3527907215424749,
                              0.28302833437919619,
                              0.5896324454833022,
                              -0.21456637681868416,
                              0.058126008807519728,
                              -0.3211194230360422,
                              0.8839941024780273,
                              0.40464502843908647
                          ],
                          "Bias": -0.3308406698863706
                      }
                  ]
              }
          ],
          "Heritage": 2,
          "Fitness": 0.0
      },
      {
          "LayerGenes": [
              {
                  "NeuronGenes": [
                      {
                          "Weights": [
                              1.6136477253141813,
                              -0.240458834036474,
                              0.38404332938562649,
                              1.254670218460698,
                              -0.824009873805096,
                              0.4875187575817108,
                              -0.46415545690215589,
                              0.09655582904815674,
                              0.23320846001341523,
                              -0.5294241905212402,
                              -0.09915215263377775,
                              0.07821358637354734
                          ],
                          "Bias": -0.1419123411178589
                      },
                      {
                          "Weights": [
                              0.6113262020706174,
                              0.0,
                              -0.30144724415406756,
                              -0.5681749803843232,
                              0.6752142906188965,
                              0.0,
                              -0.5749450902453361,
                              1.1585685919891745,
                              0.0,
                              0.0,
                              0.0,
                              0.0
                          ],
                          "Bias": -0.16060236275816437
                      },
                      {
                          "Weights": [
                              0.0,
                              0.0,
                              0.0,
                              0.6484815884310776,
                              0.0,
                              0.0,
                              0.08916431876551739,
                              0.3300421857715843,
                              0.0,
                              0.11564284455383874,
                              0.0,
                              0.0
                          ],
                          "Bias": 0.0
                      },
                      {
                          "Weights": [
                              0.0,
                              0.0,
                              0.0,
                              0.0,
                              0.4373591478314043,
                              0.0,
                              0.0,
                              0.0,
                              0.0,
                              0.0,
                              0.0,
                              0.0
                          ],
                          "Bias": 0.0
                      },
                      {
                          "Weights": [
                              0.0,
                              0.0,
                              0.0,
                              -0.44770073060851375,
                              0.0,
                              0.0,
                              0.0,
                              0.0,
                              0.0,
                              0.3579206801745997,
                              0.0,
                              0.18607798647789665
                          ],
                          "Bias": 0.0
                      },
                      {
                          "Weights": [
                              0.0,
                              0.0,
                              0.0,
                              0.0,
                              0.0,
                              0.0,
                              0.0,
                              0.0,
                              0.0,
                              0.0,
                              0.0,
                              0.005289749719343264
                          ],
                          "Bias": 0.0
                      },
                      {
                          "Weights": [
                              0.1600731611251831,
                              -0.9221715927124023,
                              0.7229058742523193,
                              -0.7383184432983398,
                              -0.44534218311309817,
                              -0.5430741310119629,
                              0.32356974482536318,
                              0.3576616942882538,
                              0.23527777194976808,
                              0.9018640518188477,
                              -0.45061051845550539,
                              -0.4628955125808716
                          ],
                          "Bias": -0.841606855392456
                      },
                      {
                          "Weights": [
                              0.0,
                              0.0,
                              0.0,
                              0.0,
                              -0.7164473533630371,
                              0.0,
                              0.0,
                              0.0,
                              0.46458765864372256,
                              0.127893328666687,
                              0.0,
                              0.0
                          ],
                          "Bias": 0.0
                      }
                  ]
              },
              {
                  "NeuronGenes": [
                      {
                          "Weights": [
                              0.2300640344619751,
                              -0.3560246229171753,
                              0.038872599601745608,
                              0.15608251094818116,
                              -0.46147119998931887,
                              0.8189151287078857,
                              0.742518424987793,
                              -0.7747609615325928
                          ],
                          "Bias": -0.36209261417388918
                      },
                      {
                          "Weights": [
                              0.9077446460723877,
                              -0.16442711988308646,
                              0.08846809948789769,
                              -0.26274970568283609,
                              0.28931418622528329,
                              -0.04810715883250083,
                              0.016738057136535646,
                              0.3095071017742157
                          ],
                          "Bias": -0.9548775547362709
                      },
                      {
                          "Weights": [
                              0.5544741153717041,
                              -0.49403154850006106,
                              0.014098525047302246,
                              -0.18545520305633546,
                              0.9258995056152344,
                              -0.5703437328338623,
                              0.0,
                              -0.5087213516235352
                          ],
                          "Bias": 0.0
                      },
                      {
                          "Weights": [
                              0.0,
                              0.0,
                              0.0,
                              -0.01433098316192627,
                              -0.8915188312530518,
                              0.0,
                              0.0,
                              0.8818790912628174
                          ],
                          "Bias": 0.0
                      },
                      {
                          "Weights": [
                              -0.495186448097229,
                              -0.13734444623271334,
                              0.0,
                              0.0,
                              -0.7527524804728891,
                              0.45863408370759908,
                              0.25478078196272238,
                              0.0
                          ],
                          "Bias": 0.0
                      },
                      {
                          "Weights": [
                              0.0,
                              0.0,
                              0.15074443013790823,
                              -0.2618028816913575,
                              0.748842716217041,
                              0.9233958721160889,
                              0.3109248992401734,
                              0.0
                          ],
                          "Bias": 0.0567801645119722
                      },
                      {
                          "Weights": [
                              0.0,
                              0.0,
                              0.0,
                              -0.165063738822937,
                              0.6552536105871006,
                              -0.635129451751709,
                              0.0,
                              -0.04114171012703474
                          ],
                          "Bias": 0.0
                      },
                      {
                          "Weights": [
                              0.0,
                              0.0,
                              1.1057769186657718,
                              -1.6338553443280864,
                              -0.325665312045779,
                              0.492559302982291,
                              0.0,
                              1.2924223862017617
                          ],
                          "Bias": 0.0
                      }
                  ]
              },
              {
                  "NeuronGenes": [
                      {
                          "Weights": [
                              -0.0430220365524292,
                              -0.2278050022205085,
                              1.1461709871304289,
                              -0.0756028456797253,
                              -1.6345570798190746,
                              0.9428604282578025,
                              0.5090078697062577,
                              -0.42388010752922869
                          ],
                          "Bias": 0.6722925203592922
                      },
                      {
                          "Weights": [
                              0.12681614091239927,
                              -0.08246917153741293,
                              -0.4649019536714885,
                              0.5744251000072035,
                              -0.044658958106039679,
                              0.33724281191825869,
                              -1.365386630069074,
                              1.8862751924145167
                          ],
                          "Bias": -0.009144267015090878
                      },
                      {
                          "Weights": [
                              0.3527907215424749,
                              0.28302833437919619,
                              0.5896324454833022,
                              -0.21456637681868416,
                              0.04139717465580617,
                              -0.3211194230360422,
                              1.0413956353799848,
                              0.40464502843908647
                          ],
                          "Bias": -0.3308406698863706
                      }
                  ]
              }
          ],
          "Heritage": 3,
          "Fitness": 4951005.0
      },
      {
          "LayerGenes": [
              {
                  "NeuronGenes": [
                      {
                          "Weights": [
                              1.6136477253141813,
                              -0.3255657469097393,
                              0.38404332938562649,
                              0.9266839054631588,
                              -0.824009873805096,
                              0.4875187575817108,
                              -0.3150228004545932,
                              0.1307303627604881,
                              0.3157492082757956,
                              -0.5294241905212402,
                              -0.09915215263377775,
                              0.07821358637354734
                          ],
                          "Bias": -0.1419123411178589
                      },
                      {
                          "Weights": [
                              0.8131441591055032,
                              0.0,
                              -0.30144724415406756,
                              -0.6192705870986401,
                              0.6752142906188965,
                              0.0,
                              -0.1629873514175415,
                              1.262757912483006,
                              0.0,
                              0.0,
                              0.0,
                              0.0
                          ],
                          "Bias": -0.16060236275816437
                      },
                      {
                          "Weights": [
                              0.0,
                              0.0,
                              0.0,
                              0.6484815884310776,
                              0.0,
                              0.0,
                              0.08916431876551739,
                              0.3300421857715843,
                              0.0,
                              0.11564284455383874,
                              0.0,
                              0.0
                          ],
                          "Bias": 0.0
                      },
                      {
                          "Weights": [
                              0.0,
                              0.0,
                              0.0,
                              0.0,
                              0.4373591478314043,
                              0.0,
                              0.0,
                              0.0,
                              0.0,
                              0.0,
                              0.0,
                              0.0
                          ],
                          "Bias": 0.0
                      },
                      {
                          "Weights": [
                              0.0,
                              0.0,
                              0.0,
                              -0.44770073060851375,
                              0.0,
                              0.0,
                              0.0,
                              0.0,
                              0.0,
                              0.3579206801745997,
                              0.0,
                              0.18607798647789665
                          ],
                          "Bias": 0.0
                      },
                      {
                          "Weights": [
                              0.0,
                              0.0,
                              0.0,
                              0.0,
                              0.0,
                              0.0,
                              0.0,
                              0.0,
                              0.0,
                              0.0,
                              0.0,
                              0.005289749719343264
                          ],
                          "Bias": 0.0
                      },
                      {
                          "Weights": [
                              0.1600731611251831,
                              -0.9221715927124023,
                              -0.5998356342315674,
                              -0.7383184432983398,
                              -0.44534218311309817,
                              -0.5430741310119629,
                              -0.8955609798431397,
                              -0.17622554302215577,
                              0.23527777194976808,
                              0.9018640518188477,
                              -0.45061051845550539,
                              -0.4628955125808716
                          ],
                          "Bias": -0.841606855392456
                      },
                      {
                          "Weights": [
                              0.0,
                              0.0,
                              0.0,
                              0.0,
                              -0.7164473533630371,
                              0.0,
                              0.0,
                              0.0,
                              0.46458765864372256,
                              0.127893328666687,
                              0.0,
                              0.0
                          ],
                          "Bias": 0.0
                      }
                  ]
              },
              {
                  "NeuronGenes": [
                      {
                          "Weights": [
                              -0.4137920141220093,
                              -0.3560246229171753,
                              0.038872599601745608,
                              0.15608251094818116,
                              -0.46147119998931887,
                              0.8189151287078857,
                              0.742518424987793,
                              -0.7747609615325928
                          ],
                          "Bias": -0.36209261417388918
                      },
                      {
                          "Weights": [
                              0.9077446460723877,
                              -0.16442711988308646,
                              0.11244974929969942,
                              -0.35951536918713186,
                              0.28931418622528329,
                              -0.04810715883250083,
                              0.022902361680209539,
                              0.3095071017742157
                          ],
                          "Bias": -0.9548775547362709
                      },
                      {
                          "Weights": [
                              0.5544741153717041,
                              -0.49403154850006106,
                              0.014098525047302246,
                              -0.18545520305633546,
                              0.9258995056152344,
                              -0.5703437328338623,
                              0.0,
                              -0.5087213516235352
                          ],
                          "Bias": 0.0
                      },
                      {
                          "Weights": [
                              0.0,
                              0.0,
                              0.0,
                              -0.01433098316192627,
                              -1.1218799314649176,
                              0.0,
                              0.0,
                              0.8818790912628174
                          ],
                          "Bias": 0.0
                      },
                      {
                          "Weights": [
                              -0.495186448097229,
                              -0.13734444623271334,
                              0.0,
                              0.0,
                              -0.7527524804728891,
                              0.45863408370759908,
                              0.25478078196272238,
                              0.0
                          ],
                          "Bias": 0.0
                      },
                      {
                          "Weights": [
                              0.0,
                              0.0,
                              0.15074443013790823,
                              -0.2618028816913575,
                              0.748842716217041,
                              0.9233958721160889,
                              0.2091783860522014,
                              0.0
                          ],
                          "Bias": 0.0567801645119722
                      },
                      {
                          "Weights": [
                              0.0,
                              0.0,
                              0.0,
                              -0.165063738822937,
                              0.6552536105871006,
                              -0.635129451751709,
                              0.0,
                              -0.04114171012703474
